Language model created by QuickLM on Sat Nov  5 02:17:29 EDT 2016
Copyright (c) 1996-2010 Carnegie Mellon University and Alexander I. Rudnicky

The model is in standard ARPA format, designed by Doug Paul while he was at MITRE.

The code that was used to produce this language model is available in Open Source.
Please visit http://www.speech.cs.cmu.edu/tools/ for more information

The (fixed) discount mass is 0.5. The backoffs are computed using the ratio method.
This model based on a corpus of 4 sentences and 6 words

\data\
ngram 1=6
ngram 2=8
ngram 3=4

\1-grams:
-0.7782 </s> -0.3010
-0.7782 <s> -0.2218
-1.3802 BACKWARD -0.2218
-1.3802 FORWARD -0.2218
-1.3802 TURNLEFT -0.2218
-1.3802 TURNRIGHT -0.2218

\2-grams:
-0.9031 <s> BACKWARD 0.0000
-0.9031 <s> FORWARD 0.0000
-0.9031 <s> TURNLEFT 0.0000
-0.9031 <s> TURNRIGHT 0.0000
-0.3010 BACKWARD </s> -0.3010
-0.3010 FORWARD </s> -0.3010
-0.3010 TURNLEFT </s> -0.3010
-0.3010 TURNRIGHT </s> -0.3010

\3-grams:
-0.3010 <s> BACKWARD </s>
-0.3010 <s> FORWARD </s>
-0.3010 <s> TURNLEFT </s>
-0.3010 <s> TURNRIGHT </s>

\end\